digraph Tree {
node [shape=box, style="filled, rounded", color="black", fontname="helvetica"] ;
edge [fontname="helvetica"] ;
0 [label="petal width (cm) <= 0.75\ngini = 0.66\nsamples = 96\nvalue = [44, 52, 54]\nclass = virginica", fillcolor="#fcfbfe"] ;
1 [label="gini = 0.0\nsamples = 32\nvalue = [44, 0, 0]\nclass = setosa", fillcolor="#e58139"] ;
0 -> 1 [labeldistance=2.5, labelangle=45, headlabel="True"] ;
2 [label="petal length (cm) <= 4.85\ngini = 0.5\nsamples = 64\nvalue = [0, 52, 54]\nclass = virginica", fillcolor="#faf8fe"] ;
0 -> 2 [labeldistance=2.5, labelangle=-45, headlabel="False"] ;
3 [label="petal length (cm) <= 4.75\ngini = 0.11\nsamples = 31\nvalue = [0, 46, 3]\nclass = versicolor", fillcolor="#46e789"] ;
2 -> 3 ;
4 [label="sepal length (cm) <= 4.95\ngini = 0.05\nsamples = 28\nvalue = [0, 42, 1]\nclass = versicolor", fillcolor="#3ee684"] ;
3 -> 4 ;
5 [label="petal width (cm) <= 1.35\ngini = 0.44\nsamples = 2\nvalue = [0, 2, 1]\nclass = versicolor", fillcolor="#9cf2c0"] ;
4 -> 5 ;
6 [label="gini = 0.0\nsamples = 1\nvalue = [0, 2, 0]\nclass = versicolor", fillcolor="#39e581"] ;
5 -> 6 ;
7 [label="gini = 0.0\nsamples = 1\nvalue = [0, 0, 1]\nclass = virginica", fillcolor="#8139e5"] ;
5 -> 7 ;
8 [label="gini = 0.0\nsamples = 26\nvalue = [0, 40, 0]\nclass = versicolor", fillcolor="#39e581"] ;
4 -> 8 ;
9 [label="petal width (cm) <= 1.6\ngini = 0.44\nsamples = 3\nvalue = [0, 4, 2]\nclass = versicolor", fillcolor="#9cf2c0"] ;
3 -> 9 ;
10 [label="gini = 0.0\nsamples = 1\nvalue = [0, 3, 0]\nclass = versicolor", fillcolor="#39e581"] ;
9 -> 10 ;
11 [label="sepal width (cm) <= 3.0\ngini = 0.44\nsamples = 2\nvalue = [0, 1, 2]\nclass = virginica", fillcolor="#c09cf2"] ;
9 -> 11 ;
12 [label="gini = 0.0\nsamples = 1\nvalue = [0, 0, 2]\nclass = virginica", fillcolor="#8139e5"] ;
11 -> 12 ;
13 [label="gini = 0.0\nsamples = 1\nvalue = [0, 1, 0]\nclass = versicolor", fillcolor="#39e581"] ;
11 -> 13 ;
14 [label="petal width (cm) <= 1.75\ngini = 0.19\nsamples = 33\nvalue = [0, 6, 51]\nclass = virginica", fillcolor="#9050e8"] ;
2 -> 14 ;
15 [label="sepal width (cm) <= 2.9\ngini = 0.48\nsamples = 5\nvalue = [0, 6, 9]\nclass = virginica", fillcolor="#d5bdf6"] ;
14 -> 15 ;
16 [label="sepal length (cm) <= 6.05\ngini = 0.18\nsamples = 4\nvalue = [0, 1, 9]\nclass = virginica", fillcolor="#8f4fe8"] ;
15 -> 16 ;
17 [label="sepal width (cm) <= 2.45\ngini = 0.38\nsamples = 2\nvalue = [0, 1, 3]\nclass = virginica", fillcolor="#ab7bee"] ;
16 -> 17 ;
18 [label="gini = 0.0\nsamples = 1\nvalue = [0, 0, 3]\nclass = virginica", fillcolor="#8139e5"] ;
17 -> 18 ;
19 [label="gini = 0.0\nsamples = 1\nvalue = [0, 1, 0]\nclass = versicolor", fillcolor="#39e581"] ;
17 -> 19 ;
20 [label="gini = 0.0\nsamples = 2\nvalue = [0, 0, 6]\nclass = virginica", fillcolor="#8139e5"] ;
16 -> 20 ;
21 [label="gini = 0.0\nsamples = 1\nvalue = [0, 5, 0]\nclass = versicolor", fillcolor="#39e581"] ;
15 -> 21 ;
22 [label="gini = 0.0\nsamples = 28\nvalue = [0, 0, 42]\nclass = virginica", fillcolor="#8139e5"] ;
14 -> 22 ;
}